40 100
</s> -0.008336 0.0078417 -0.0061374 -0.0020661 0.0048581 0.0012941 0.0062069 0.00018671 0.0098395 0.0093062 -0.0013909 0.0030681 0.0092299 0.0072059 -0.0041017 -0.0017527 0.00030411 0.0057317 0.00089177 -0.0081353 -0.0013039 0.0068979 0.0054024 -0.0061794 0.0055536 -0.0064033 0.0015737 -0.0037043 -0.0017613 0.0098039 -0.0067325 -0.0032227 -0.0084925 -0.0064768 -0.009248 -0.00059221 0.0034992 -0.0086246 -0.0021655 -0.006747 0.0098168 0.0073743 0.0034827 0.0017279 -0.004848 0.0018165 -0.004446 -0.0045861 -0.0081502 0.0026553 -0.0068775 0.0090254 -0.0092021 0.0046964 -0.00065317 -0.0054895 0.0013721 0.00208 0.0039509 0.0032904 -0.0065331 0.0050753 0.0065165 0.0050948 -0.0036294 0.00060796 -0.0070143 0.0058395 0.0083464 0.0059056 -0.0098033 0.00023836 -0.0040406 0.0011264 4.9175e-05 -0.0038248 0.0096088 0.0092642 -0.00099531 -0.0040173 -0.0088926 0.006055 0.0096773 -0.0089046 -0.0051899 -0.0079293 0.00069849 0.00047827 -0.0034153 -0.0036435 0.0095248 0.004698 0.0091301 -0.0090088 0.0014539 -0.0087641 0.00629 0.0095059 -0.0054929 -0.0018819 
new 0.0023562 0.0050958 0.0083599 -0.0092828 0.0066043 0.0081266 -0.0064724 0.0013087 -0.0034739 -0.0021223 -0.0006557 -0.0063295 -0.0048463 0.0022292 -0.0060584 -0.0072001 0.0033928 0.0060022 -0.0068769 -0.00057649 -0.0048582 0.0098764 0.0039422 0.0069367 -0.0086404 -0.0061859 -0.0098418 -0.0011993 -0.0022063 -0.0073073 -0.0050208 -0.00072525 0.0039569 -0.0058467 -0.0063517 -0.0020744 -0.0071363 0.0043362 -0.00051286 -0.0027968 -0.0099936 0.009414 -0.0051305 0.0030709 0.0088343 0.0019004 0.0081467 -0.0033677 -0.003962 0.0035085 -0.00094592 -0.0017925 0.0023328 0.0048828 -0.0090303 0.003555 -0.0096697 0.00068501 0.0087575 -0.0024376 -0.00015776 0.0035431 0.0056951 0.0078943 0.0045354 -0.0035968 -0.0070728 -0.0052624 -0.0057082 -0.0056784 0.0015656 0.0050791 0.0058357 -0.0073684 -0.0024101 -0.0025452 -0.0039369 0.0028805 0.0064732 0.0056058 0.00047925 -0.0058083 0.002682 0.0028353 0.0047852 0.0035961 -0.0020087 -0.0098294 -0.0047495 0.0072773 0.002866 0.002482 0.0025542 0.0017926 0.0093313 0.0023181 -0.00059792 0.0023712 -0.0068247 -0.0071537 
for 0.0073361 -0.008077 -0.00098719 -0.0034568 0.00030389 -0.0074071 -0.0086138 -0.0093518 0.0096961 0.0091771 -0.010029 -0.0024323 -0.0018873 -0.0060374 -0.0028889 0.0047358 0.0025089 -0.0027915 -0.0076608 0.0032127 0.0069986 -0.0065584 -0.0063565 0.0026871 -0.00033858 -0.0013527 0.0051007 -0.0094213 -0.008337 0.0021898 0.0030271 0.0070113 -0.0044455 0.002975 -0.0085606 -0.0072065 -0.0074877 0.0088712 0.0086879 0.0084231 -0.0077173 0.0046557 0.0047383 -2.3975e-05 0.0037177 0.0046399 0.0080275 0.0076605 0.0061724 0.0073265 -0.0016722 -0.00045022 0.0054894 -0.0056701 -0.009706 0.0079006 0.0019238 -0.0082769 -0.0066822 -0.0041995 0.0097413 0.0084602 0.0067633 0.0066082 -0.0063134 0.0031752 -0.005582 -0.0022041 0.003915 -0.0089191 0.0072041 0.0034944 0.0033883 -0.0096969 -0.0090348 0.0032819 0.0088314 -0.0038719 0.0089946 -0.007732 0.0086912 -0.0025324 -0.0070434 -0.005199 -0.0021611 -0.0068323 -0.0023124 0.0094571 0.0065453 -0.0036222 -0.0062888 -0.00057132 0.0068027 -0.0031042 0.003288 -0.0013317 -0.002183 0.005312 0.0058918 0.0088255 
year. 0.00034983 0.0092589 -0.0061662 -0.0033923 0.00082448 0.0079508 -0.0059768 -0.00038869 0.006086 0.0064801 -0.0042585 0.0089253 -0.0072366 0.0043053 0.0053315 -0.0055779 -0.0067724 -0.0077217 0.007775 0.0030372 0.0083756 0.0085751 -0.00026055 0.0013878 -0.0070376 0.0047875 0.0078455 -0.0023245 -0.0092188 -0.0049319 0.0066188 0.0052679 -0.00057926 0.0084434 -0.0019074 0.0078104 0.0021592 -0.0040332 -0.0017748 0.0042891 0.002155 -0.00039753 -0.0039566 -0.0067703 -0.00086541 -0.0043949 0.0072211 -0.0012177 0.004599 0.0065481 -0.0095241 -0.0059291 0.0015065 -0.00674 -0.0019068 -0.0053232 -0.00026243 0.0027552 0.0043976 0.00068494 -0.0081769 0.0026312 0.0030973 -0.0083847 -0.0069214 0.0023664 0.00069282 -0.0053218 -0.001447 -0.0041363 0.0086406 0.0025798 0.00053659 0.004097 -8.8439e-05 0.0084091 0.0047721 0.009266 0.0066135 -0.0075889 0.0010591 0.0031446 0.0080613 0.0052771 0.0095758 3.6052e-05 -0.001205 0.0075154 -0.0092382 -0.0088401 0.0011775 -0.0060112 0.00089378 0.0031406 -0.0060929 -0.0039956 0.0003452 0.0043897 -0.002402 0.0023137 
the -0.0082826 0.0078267 -0.0062438 -0.0020245 0.0048798 0.001167 0.0061844 0.00026285 0.0099202 0.009339 -0.0015175 0.0030502 0.0092324 0.0071259 -0.0041263 -0.0016841 0.00029978 0.0058352 0.00088396 -0.0081247 -0.0013844 0.0068893 0.0054822 -0.0061553 0.0056379 -0.0063641 0.0015914 -0.0037195 -0.0017504 0.0098653 -0.0067191 -0.0033402 -0.0084661 -0.0065338 -0.0092514 -0.00067873 0.0034801 -0.0086893 -0.0022245 -0.0066628 0.0098154 0.0074198 0.0034339 0.0017619 -0.0049253 0.0018807 -0.0046282 -0.0045957 -0.0080458 0.0026444 -0.0070183 0.0089457 -0.0091175 0.0046968 -0.00070096 -0.0055823 0.0014595 0.0020966 0.0039632 0.003298 -0.0065284 0.0050086 0.0064911 0.0050508 -0.0036152 0.00066834 -0.0070636 0.005858 0.0081961 0.0058803 -0.0098176 0.00018909 -0.0041027 0.0012458 0.0001062 -0.0037912 0.0096628 0.0092905 -0.0010485 -0.0038796 -0.0088635 0.0060269 0.0096688 -0.0090145 -0.0052183 -0.0078866 0.00069747 0.00040138 -0.0033876 -0.0036512 0.0095676 0.0046945 0.0090392 -0.0090075 0.001444 -0.0087961 0.0062079 0.0096164 -0.0054738 -0.0018691 
images 0.0023395 0.0051013 0.0083975 -0.0092982 0.0065947 0.0081674 -0.0064655 0.0012801 -0.0034924 -0.0021291 -0.00061715 -0.0063198 -0.004848 0.0022631 -0.0060516 -0.0072231 0.0033909 0.0059627 -0.0068754 -0.00057918 -0.0048286 0.0098856 0.003917 0.0069292 -0.0086709 -0.0061949 -0.0098504 -0.0011972 -0.0022162 -0.0073265 -0.0050232 -0.00068806 0.0039474 -0.0058224 -0.0063542 -0.0020474 -0.0071341 0.0043596 -0.0004927 -0.0028261 -0.0099929 0.009407 -0.0051114 0.0030631 0.0088599 0.0018806 0.0082093 -0.0033624 -0.0039976 0.0035152 -0.00090219 -0.001761 0.0023024 0.0048877 -0.0090194 0.0035882 -0.0096995 0.0006798 0.0087543 -0.0024418 -0.00015633 0.0035644 0.0057024 0.0079055 0.0045316 -0.0036141 -0.0070581 -0.0052679 -0.0056538 -0.005671 0.0015714 0.0050911 0.0058502 -0.0074158 -0.0024328 -0.0025537 -0.0039481 0.0028791 0.006493 0.0055557 0.0004669 -0.0057969 0.0026895 0.002871 0.0047995 0.0035766 -0.0020103 -0.0098027 -0.0047623 0.0072813 0.0028556 0.0024892 0.0025874 0.0017894 0.009338 0.002331 -0.0005733 0.0023385 -0.0068343 -0.0071572 
of 0.0072587 -0.0080542 -0.00083797 -0.0035131 0.00027035 -0.0072325 -0.0085904 -0.0094649 0.009615 0.0091535 -0.0098679 -0.0023963 -0.0018832 -0.0059285 -0.0028582 0.004644 0.0025083 -0.0029383 -0.0076511 0.0032011 0.0071102 -0.0065306 -0.006462 0.0026554 -0.00045377 -0.0014047 0.0050666 -0.0094116 -0.0083676 0.0021208 0.003017 0.0071657 -0.0044866 0.0030591 -0.0085724 -0.0070883 -0.0074658 0.0089614 0.0087755 0.0083089 -0.0077161 0.0046106 0.0048113 -5.711e-05 0.0038214 0.0045618 0.0082765 0.0076779 0.0060252 0.0073465 -0.0014935 -0.00033098 0.0053652 -0.0056647 -0.0096589 0.0080275 0.0018024 -0.0083031 -0.0066955 -0.0042073 0.009745 0.0085513 0.0067992 0.0066621 -0.0063326 0.0030992 -0.0055196 -0.002224 0.0041225 -0.0088883 0.0072175 0.0035493 0.003461 -0.0098705 -0.0091218 0.0032432 0.0087786 -0.0038837 0.0090753 -0.0079247 0.0086474 -0.0024913 -0.0070151 -0.0050555 -0.002111 -0.0069009 -0.0023126 0.0095604 0.0065019 -0.0036145 -0.006331 -0.00055591 0.0069348 -0.0031152 0.0033126 -0.0012904 -0.0020741 0.0051727 0.0058662 0.0088152 
Jupiter's 0.00029107 0.0092744 -0.0060484 -0.0034364 0.00079668 0.0080883 -0.0059543 -0.00047417 0.0060096 0.0064514 -0.0041255 0.0089508 -0.0072368 0.0043943 0.0053571 -0.0056513 -0.0067704 -0.0078383 0.0077833 0.0030265 0.0084639 0.0085906 -0.00034569 0.0013618 -0.0071284 0.0047482 0.0078237 -0.0023122 -0.0092379 -0.0049921 0.0066086 0.0053909 -0.00060955 0.0085104 -0.0019087 0.0079035 0.0021781 -0.0039616 -0.001709 0.0041973 0.0021569 -0.0004403 -0.0038991 -0.0068008 -0.0007827 -0.0044604 0.0074194 -0.001205 0.0044828 0.0065626 -0.0093751 -0.0058373 0.0014109 -0.0067367 -0.0018608 -0.00522 -0.00035681 0.0027363 0.0043847 0.00067752 -0.0081782 0.0027027 0.0031225 -0.0083419 -0.0069359 0.0023037 0.00074604 -0.005339 -0.0012811 -0.0041093 0.0086553 0.0026269 0.00059679 0.0039623 -0.00015427 0.0083754 0.0047211 0.0092473 0.0066731 -0.0077424 0.0010251 0.0031767 0.0080782 0.005395 0.0096114 -1.4911e-05 -0.0012053 0.0075998 -0.0092713 -0.0088324 0.0011379 -0.0060015 0.00099502 0.0031356 -0.0060783 -0.0039592 0.00043183 0.0042711 -0.0024229 0.0023025 
moons. -0.0066402 0.0056747 -0.0023347 0.0058923 -0.00027634 -0.0074899 0.0023974 -0.0095871 0.0097474 0.008644 0.0071338 -0.0038652 0.0084634 0.0043716 0.0017794 0.0065368 -0.0094003 0.0015174 -0.0082225 -0.0062625 0.0073472 0.0038031 0.00085559 -0.0023435 0.0011561 -0.0027769 -0.0068477 0.002575 0.0064709 0.0096526 -0.0034509 0.003478 -0.0069717 -0.0029786 -0.0085075 0.0087614 -0.0030188 -0.0072853 0.0056362 -0.0034445 0.0096331 0.0047904 -0.0030572 -0.0065142 0.00025645 -0.0063227 0.001001 0.00082623 -0.0062412 -0.0046905 -0.003847 0.0080129 -0.0083595 -0.00059883 0.0086536 -0.001031 -0.0072041 -0.0058309 -0.0020891 -0.0034153 -0.0030565 0.00010915 0.0030153 0.00015566 0.0027512 -0.0087424 -0.0040607 0.0016936 0.006609 0.0017941 -0.0096158 -0.0095631 0.0018693 -0.0076878 -0.009875 0.002376 0.0092646 0.0085614 0.0079819 0.0020405 -0.0077724 0.0020966 0.0093615 -0.0078778 -0.00038729 -0.0058425 -0.0086065 -0.0090881 0.0031798 0.0027088 0.0090859 -0.00059487 0.0082114 -0.0080232 -0.0070906 -0.0075444 0.0025262 0.0090857 -0.00097721 0.0062476 
reveals -0.0052796 0.00019247 0.0067173 -0.0085683 0.0032062 0.0062402 -0.0029456 -0.0073842 0.0030713 0.0057623 0.0086739 -0.0026544 0.00030202 -0.0055259 -0.0021215 -0.0043973 -0.0032222 0.0019993 -0.0037575 0.0088494 0.00028593 0.0097652 -0.0021078 0.0038762 -0.0072833 -0.0023592 -0.0096875 0.0075959 0.005576 -0.0046133 -3.8558e-05 0.0085398 -0.0020848 -0.0016853 -0.002709 0.0058405 -0.0042849 -0.0013273 0.0089697 0.0044083 -0.0099867 0.0088492 -0.00025942 -0.0038513 0.0076639 -0.0061943 0.0062865 0.0032682 0.0020833 -0.0029768 0.0080935 0.0064197 -0.0053315 -0.00022218 -0.0080725 -0.0028911 -0.0093355 -0.0086267 0.0075178 0.0051191 0.0096899 -0.0029206 0.0013861 0.0057791 -0.00092603 0.0028162 -0.0041534 -0.00052423 -0.0014153 -0.001361 -0.0068651 0.0001474 0.0016549 -0.0047471 0.0051763 0.0049173 0.0021423 -0.0042249 0.0029465 0.0012115 -0.0090455 -0.0016137 -0.00463 -0.0043376 -0.00042158 -0.0028163 0.0059779 -0.009661 0.00049472 0.0045593 -0.0042604 -0.0050232 -0.0048919 -0.0064192 0.0086681 -0.0053597 0.0087923 -0.0052411 -0.0036585 -0.0043073 
Recent 0.0045813 -0.0061199 0.0082018 0.0030146 -0.0094283 -0.0046125 -0.0072064 -0.0088468 0.0093246 0.0083455 -0.0098831 0.0051833 0.0062306 -0.0019383 0.0042535 -0.000636 -0.0049919 0.0042407 -0.005314 -0.0035841 0.0041329 -0.0030652 -0.0028316 -0.0046602 0.0091808 0.0072356 0.00014902 -0.008841 -0.0067242 -0.005697 -0.0039548 0.004203 0.0010574 -0.0039475 -0.0071521 -0.0042779 -0.0049608 0.0078493 0.0074832 0.0067135 -0.0054354 -0.0007189 -0.0004357 0.009919 -0.0024398 -0.00080983 0.0063551 0.0053455 0.0021705 0.0046829 0.0068534 0.0092511 0.00082537 -0.0013253 -0.0093757 0.0059492 -0.0063042 -0.0065867 -0.0033741 0.0015885 0.0094967 0.0070302 0.0035771 0.0032807 -0.0026504 -0.0037334 -0.0011008 0.0055676 -0.0019178 -0.0078085 0.0044198 -0.0029529 -0.0031448 -0.009618 -0.0081828 -0.003474 0.007622 0.0022623 0.0080965 -0.0056966 0.0073259 0.0049878 -0.0040431 -0.0002346 0.00575 -0.003759 0.0053727 0.0090341 0.003032 0.0027662 -0.0026175 0.0088859 0.0037736 0.0037702 -0.0033824 0.0073815 0.0057611 0.00047561 0.0017447 0.0076413 
study -0.009356 0.0085381 -0.0022156 0.0031664 -0.0083758 0.0060335 -0.0019339 0.0091318 0.0021116 0.0029407 0.0016058 0.007878 -0.0044766 -0.0012905 0.00068499 -0.001229 -0.0035492 -0.0055626 0.0055549 -0.0039336 0.0068431 0.0071776 0.0093983 -0.0072481 -0.0041717 -0.00046033 0.0056621 0.0053581 -0.0084651 7.518e-05 0.0032277 0.00065773 0.0088105 0.0069565 0.006175 0.0057088 -0.0056722 0.0020055 0.0065165 -0.0015124 -0.0056893 0.0091793 0.0021435 -0.0035685 0.0083519 0.0011458 0.0046408 0.0075797 -0.00091431 0.0031152 -0.0089099 -0.0017615 -0.0070833 -0.0034693 0.0062205 -0.00054583 0.0093775 -0.0045078 -0.0012137 -0.0086419 -0.0063498 -0.004667 -0.0037763 -0.0067274 -0.0038571 -0.0053245 -0.0085696 -0.00066244 0.0072749 0.0017494 0.0072955 -0.0047978 -0.0088732 -0.0019523 0.0097522 0.0067903 -0.00049279 0.0085245 0.003292 -0.0053322 -0.0079187 -0.0036762 0.0061435 0.00066649 0.009195 -0.009987 0.0075874 0.0051129 -0.0085144 -0.0076696 -0.0076798 -0.0020052 -0.008106 -0.0037283 -0.0021643 0.0020439 -0.0092271 -0.0013241 0.0051673 -0.0053837 
shows -0.0049171 0.0035055 0.0014146 -0.0061348 -0.0053919 0.0036648 -0.0014223 0.00067467 0.0096878 0.0079942 -0.0044007 0.0091856 0.007693 0.0015021 0.0076481 -0.0051433 0.00089301 -0.0026438 0.0026578 -0.004384 -0.0040383 0.00070363 -0.0036534 0.0015048 -0.0032069 0.00086436 0.0047376 0.0088495 -0.005287 0.0095206 -0.00016903 -0.0098693 -0.0054371 0.00048659 -0.0077681 -0.0019269 -0.009549 -0.005978 -0.006591 -0.00010138 0.0094471 0.0022293 -0.009627 0.005252 0.0053271 0.0055625 0.0063633 0.0062322 -0.0042775 0.0079576 -0.00088358 0.0069589 -0.0074732 -0.0058951 -0.0020618 0.0033787 0.0042567 0.0062671 -0.0081211 0.009879 0.00042073 -0.0048866 -0.00049056 -0.0047963 0.0091368 0.0019345 -0.0011354 -0.002449 0.0047996 -0.002332 -0.009435 0.0006192 0.0077573 0.0035532 0.00022933 0.0085923 0.008944 0.0078642 -0.0030637 0.0081679 -0.006637 -0.0018755 0.0090336 -0.006904 0.0044004 -0.0037346 0.0020888 0.0013065 0.0097891 0.0090598 0.0086604 -0.0058936 0.0072508 -0.0070349 0.0043598 -0.0063441 -0.001274 0.0087212 0.0035421 -0.0056207 
that 0.0071237 -0.0047178 0.0049925 -0.0078257 -0.00016812 0.00426 0.00056319 0.0039789 0.0096736 -0.0063283 -0.0020906 0.0010018 0.005451 0.0066558 0.0017968 -0.0015444 -0.0098399 -0.0019209 -0.00064479 -0.0017161 0.0053698 0.0096466 -0.0080985 0.00083437 -0.005866 0.0014909 -0.0095221 -0.0036192 -0.0066293 -0.0018783 0.0049495 -0.0022767 -0.0081068 0.0024266 0.00092961 -0.0063082 -0.0014481 -0.0070411 -0.0015908 -0.0083221 -0.0099825 0.0083175 0.0045697 0.0092464 0.0064383 0.0057552 0.0042915 0.0098953 0.0082092 -0.009472 -0.0029729 -0.0054309 0.0070688 -0.0053301 -0.007151 -0.0094114 -0.0089405 0.0020734 0.0062892 -0.0073195 -0.00045977 -0.0094312 -0.0029343 0.0036389 -0.0063791 0.0092722 -0.0012744 0.0042243 0.0027632 0.0029354 0.0046911 -0.004815 -0.0025643 -0.0020356 -0.0071937 -0.0075957 0.0082606 0.0086848 -0.00061687 -0.0030757 0.0014534 0.0025589 0.0080465 0.0084063 -0.005651 -0.0091953 -0.0060346 -0.0095528 0.0057614 0.0018356 0.008641 0.0074639 0.0075959 0.005371 0.0079979 0.006933 -0.0018749 0.007231 -0.00047978 -0.0014531 
coffee 0.0018815 -0.0041843 -0.0027139 0.0095296 0.00085887 -0.0019395 -0.0058115 -0.0082561 0.0089956 0.0075194 -0.0098428 -0.0072279 -0.0056547 0.0020811 -0.0086231 -0.005943 0.0075125 -0.0086236 -0.0029718 0.0096247 0.0011863 0.00039814 0.00076471 0.008013 -0.0012144 -0.0041384 -0.004771 -0.0082623 -0.0050833 0.0064634 0.00907 0.0012845 0.0065913 0.0090711 -0.005725 -0.001431 -0.0024433 0.0067641 0.0062137 0.0050829 -0.0031525 -0.0060738 -0.0056605 -0.00011634 -0.0086729 -0.0062047 0.0045026 0.0030166 -0.0017275 0.0020223 -0.0047399 -0.001137 -0.0037472 0.0030122 -0.0090677 0.0039106 0.0055599 -0.0048765 -6.0494e-05 0.0073838 0.0092442 0.0055335 0.00035847 -8.7945e-05 0.0010274 0.0094092 0.0033432 -0.0066452 -0.0079006 -0.0067154 0.0016295 -0.0094374 -0.0097281 -0.009406 -0.0072637 0.0097934 0.0064384 0.0083951 0.0071335 -0.0035234 0.0059935 -0.007523 -0.0010671 0.004632 -0.006381 -0.00063019 -0.0069415 0.0085401 -0.00044721 0.0091485 0.0010792 -0.0016718 0.00064347 -0.0093433 0.0099227 -0.0039304 -0.0063725 -0.0042716 -0.0023793 0.0064634 
might 0.00097551 0.0078028 0.0016599 0.0097573 0.0024376 0.0040295 0.0020973 -0.0012882 -0.0018239 -0.0005877 0.0073906 0.0068141 -0.0017154 -0.0069472 -0.0039758 0.0031675 -0.00032348 -0.0033284 0.0033316 0.0091005 0.0052515 0.0057624 -0.00089048 0.0041312 -0.0012431 -0.0056824 0.0034986 -0.0069636 -0.0076947 0.0051216 -0.00015623 -0.0040333 -0.0017791 0.0054272 -0.0057345 0.0035491 0.0064895 0.0079983 -0.0052363 -0.0072559 0.0064666 -0.0012265 0.0082083 -0.00034753 -0.0024852 0.0067288 0.0019312 -0.0036322 -0.0063548 -0.00032935 -0.0083849 0.0023441 0.0043898 -0.00020375 -0.0056734 0.0041681 -0.0009176 0.0082419 -0.0068199 0.0020382 -0.0045254 0.0079877 0.0093283 -0.0051001 -0.00078254 0.0070226 0.00214 0.0040097 -0.0041115 0.0076216 0.0059429 0.0077953 0.0016793 -0.0079074 -0.00036119 0.0051899 -0.0057338 0.0077883 -7.317e-05 -0.0029768 0.0031266 0.009481 0.0042128 -0.0040164 0.0087864 2.776e-05 -0.0036194 0.0026583 -0.0077668 -0.0065051 0.0034859 0.0019916 0.002824 0.0094091 0.0017497 0.0080632 0.0011452 -0.0069712 -0.0072453 0.0069259 
improve -0.0032165 0.0013378 0.0052084 0.0018254 0.0094783 -0.0051274 -0.005231 -0.0090911 0.0095894 0.0073264 0.0041203 0.0022456 0.0069237 -0.0013382 -0.0064714 0.0031496 -0.0088091 -0.0068481 -0.0064567 -0.0025114 0.0046069 -0.0023978 -0.0081965 0.005342 -0.0075995 0.0044912 -0.0036796 -0.0048679 0.0029527 0.0093667 0.0031094 -0.0031724 -0.0039127 0.0039771 -0.0070221 0.0074214 0.0039332 -0.004644 0.0012047 0.0032066 0.0092632 -0.00035789 0.0038261 -0.0029939 -0.0095726 -0.0025766 -0.0082023 -0.0083581 -0.0023589 0.00060868 0.0021419 0.0059362 -0.0066211 0.0088067 0.0072481 0.0078295 -0.0043136 -0.0016415 0.005839 0.0031727 0.0038938 -0.0098567 -0.0039922 -0.0097343 -0.0044822 -0.0074145 0.0018157 -0.0065965 0.0030503 -0.0064443 -0.0092468 -0.0091797 -0.0063309 -0.0052484 -0.0096872 -0.0052074 0.0085956 0.0071533 0.0059076 -0.0057618 -0.0055128 -0.0058372 0.0087099 -0.0058827 0.0091965 -0.0016406 -0.0072152 -0.0082653 -0.0036113 -0.0045874 0.0082176 0.0088081 0.0063232 -0.0060456 -0.0041894 -0.0051272 -0.0050414 0.008305 0.0080586 0.0025067 
long-term -0.00049538 -0.0096266 0.0033123 -0.0070959 -0.0035566 0.0023329 0.004083 -0.0046855 -0.0037628 0.001563 0.0072004 0.0046672 -0.009399 -0.0011332 0.0057268 0.0012814 0.003547 -0.0058842 0.0024731 0.0077125 -0.0095156 0.0095262 0.0058767 -0.0022186 -0.0044784 0.0053267 -0.0093592 0.0051738 0.001163 0.0008348 0.0099341 0.0069511 0.005861 0.0065637 0.0045748 0.0015796 0.0014012 0.0072719 0.0078716 -0.0010877 -0.0099763 0.0077597 0.0094216 0.002332 0.0052423 -0.0023196 0.0023687 -0.0034741 -0.0057099 0.004036 0.0060228 0.0027498 -0.00056505 0.00956 -0.0062041 0.0041093 -0.0085765 -0.0072331 0.0050527 0.00024139 0.0093864 0.0040838 -0.0072505 0.0015125 0.0081633 -0.0042975 0.0016303 0.0089679 0.0070016 0.0072454 -0.0037454 -0.0097587 -0.0067596 0.00063317 0.00041537 -0.00012473 -0.0056489 0.0015808 -0.0041633 -0.0074199 -0.008059 0.0067421 0.00072701 0.0011977 0.0091279 0.0044118 0.0019535 -0.009411 -0.0089815 -0.00088642 0.001525 -4.8536e-05 0.00011659 -0.0028377 0.007328 -0.00075771 0.0074907 -0.00034863 0.0026961 0.0013968 
memory. -0.00081825 -0.0022487 0.0063704 -0.0039554 -0.0088539 0.00073346 -0.0044165 -0.0076654 0.0086666 0.0066934 -0.0098025 0.00036091 0.0024601 0.0061005 -0.0014996 0.00875 1.679e-05 -0.0014878 -0.00062952 0.0028335 -0.0017602 0.0038615 0.004361 0.0006862 0.0083904 0.0044875 -0.009691 -0.0076836 -0.0034424 -0.0013762 0.0020948 -0.0016339 -0.0078749 0.0020898 -0.004298 0.001416 7.4228e-05 0.0056788 0.0049443 0.0034523 -0.00086968 0.0085712 0.0091148 0.0098483 0.0050941 0.0084005 0.0026501 0.00068766 -0.0056256 -0.00063828 0.0036667 0.008475 -0.0083198 0.0073498 -0.0087597 0.001872 -0.002576 -0.0031662 0.0032531 -0.0068209 0.0089918 0.0040367 -0.0028602 -0.0034566 0.0047053 0.0025518 0.0077872 0.001142 0.0061167 -0.0056223 -0.0011609 0.0040781 0.0036887 -0.0091941 -0.0063446 0.0030607 0.0052548 -0.0054722 0.0061705 -0.0013503 0.0046612 -3.3766e-05 0.0019089 0.0094985 0.0014879 0.0024986 0.00074439 0.0080461 -0.0039264 -0.0044692 0.004776 0.0077706 -0.0024867 -0.0024567 0.0032277 0.0047577 0.0014939 -0.0090188 -0.0065033 0.0052855 
next -0.0086572 0.0070531 0.0054648 -0.0036212 -0.0067367 0.0019433 0.006118 0.0083484 -0.0057236 -0.0041068 -0.0068994 0.0057348 0.0010465 0.0073394 -0.0086499 0.007609 0.0029047 -0.0010239 0.0011054 0.002139 0.0036043 0.0043299 0.0088703 -0.0044753 0.001745 0.0091208 0.0013547 0.0007109 -0.0069082 -0.0097949 -0.0035334 -0.0088013 0.0076509 0.0038585 0.0023647 0.0013342 -0.0013551 -0.006052 0.0029687 0.0070551 -0.0013771 0.0083837 -0.0057599 0.0028915 0.0066258 -0.0076482 -0.00090104 0.0051473 0.0082737 -0.0037847 -0.0079437 0.0063911 -0.0040773 0.0030573 0.0024134 0.0088225 0.0088495 0.0010038 0.0075782 -0.0072752 -0.0027041 0.00059725 0.0024113 -0.0035019 0.002302 -0.00059437 -0.0071764 0.008694 0.0043998 -0.0065188 0.0045841 0.00036044 -0.0078043 0.0062266 0.0095692 0.0036065 0.009047 0.0070566 -0.0034806 -0.00052839 -0.0058061 0.0026175 0.0022698 -0.0087674 0.0083512 -0.0099215 0.0051743 0.00015486 -0.0069966 -0.0053461 -0.005327 0.00598 -0.0063129 0.0025526 0.0056495 -0.0059356 -0.0085354 0.0074444 0.00035915 -0.00075809 
Apple -0.001474 -0.00084683 0.0089291 0.0098156 0.0043599 0.0059924 -0.0090456 0.0012049 0.0095172 0.0066572 -0.0074318 -0.0047134 0.0061486 -0.0042273 -0.00060412 -0.0085124 0.0014919 0.0090173 0.0044252 -0.00063543 -0.0068034 -0.0055212 0.0073106 0.0091935 0.0080668 0.0081491 0.007928 0.0014154 -0.0087878 0.0092424 0.006392 0.003446 -0.0023651 0.0074298 -0.006259 -0.0032899 -0.002593 -0.0033533 0.0089518 0.0065686 0.009081 -0.0029306 -0.0027556 0.0087749 -0.0045263 0.0093221 -0.0028953 -0.0029579 -0.00036572 -0.0067513 0.0050854 0.0048505 -0.0057024 0.0035063 -0.0034547 -0.0077787 0.0071833 -0.0095339 -0.00019831 -0.0035307 0.0073598 0.0051239 -0.0075207 0.0052954 0.0019107 0.0032734 0.0047416 0.0092664 0.0011973 0.0094319 -0.0090588 0.00099431 -0.00045733 0.0060425 0.00044437 0.0010092 0.0082632 0.0064391 -0.0051699 0.00040383 -0.0043663 -0.0098199 0.0083675 -0.004929 -0.0060375 0.00049223 0.0034797 0.0021146 0.0030114 0.0017634 0.0077908 0.0035016 0.005322 -0.0050464 0.0072421 -0.0039236 -0.0088665 0.0079508 -0.0074109 -0.0093633 
is -0.0080726 0.0054477 0.0015589 -0.006336 -0.0069338 0.00031772 0.0075969 0.0067119 0.0028269 0.009453 -0.0035817 0.0083135 -0.0042548 -0.0089712 0.0096436 0.0041524 -0.003063 -0.0097778 0.0055875 -0.0028556 -0.0044565 0.0093838 -9.7868e-05 -0.0052573 -0.0030318 0.0091934 -0.0091715 -0.0060325 0.0089751 0.0035775 -0.0050771 -0.0038996 -0.00014799 -0.0093369 0.0082372 0.0094079 0.0042419 0.0015415 -0.0027145 0.0062008 -0.0099684 0.0072163 -0.0057612 -0.0045677 0.0039923 0.0096432 0.00031848 0.0031471 0.00044559 -0.0024671 -0.0050634 -0.0091325 -0.0081323 0.004448 -0.0052699 -0.002429 -0.0081454 0.0034766 0.0038189 0.0078051 -0.00077433 -0.0024504 0.0084064 -0.00064599 0.0027176 0.0021697 0.0045099 -0.0062781 -0.0088635 -0.0084559 0.007818 0.0052706 0.0090068 0.0033944 0.0080726 0.0073625 0.00045756 -0.0055265 -0.0077584 0.0083312 0.0024509 -0.0090958 -0.0066111 -0.0060785 0.0038768 -0.0019423 0.0099407 -0.0093176 -0.0037014 -0.0036103 -0.0055749 -0.0075692 -0.0074362 0.0089634 0.0066388 -0.0084618 -0.0032014 -0.0078662 0.005886 0.0042494 
rumored -0.0034762 -0.00032985 -0.0046184 0.0025896 0.0014445 0.0033185 -0.0030276 -0.0070131 0.0083636 0.005866 -0.0098353 0.0079307 -0.0094309 -0.009929 0.0056106 0.0034881 -0.0074757 0.0057176 0.0017092 -0.0039543 -0.0047623 0.007303 0.0080075 -0.0066263 -0.0019458 -0.0068555 0.0054136 -0.0071043 -0.0017817 -0.0091862 -0.0048763 -0.0046308 -0.0023179 -0.0049293 -0.0028539 0.0042034 0.0025832 0.0045502 0.0036263 0.0018758 0.0014149 0.0032308 0.0038552 -0.00017236 -0.0011929 0.0030434 0.00067026 -0.0016507 -0.009449 -0.00331 -0.0080085 -0.0019759 0.0071743 -0.0083148 -0.0084645 -0.00022559 0.0093553 -0.0014398 0.0065693 -0.0010228 0.0087323 0.0024907 -0.0061057 -0.0068574 0.0083951 -0.0042688 -0.007794 0.0089395 3.0347e-05 -0.0045405 -0.0039514 -0.0024333 -0.0029329 -0.0088897 -0.0053773 -0.0036557 0.0040872 0.00065719 0.0051589 0.00091823 0.0033513 0.0074343 0.0048663 -0.0057025 0.0093267 0.0056662 0.0084293 0.0075039 -0.0073825 0.0019113 0.0084888 -0.0027953 -0.0056903 0.0044397 -0.0034865 -0.0065675 0.0093027 0.0062961 0.0093868 0.0041103 
to 0.0016804 0.0063153 0.009338 0.0029691 0.0040758 -6.644e-05 -0.0098462 -0.0020666 -0.0096689 -0.0076459 -0.001113 0.0046673 0.0038013 0.0016905 0.0066894 -0.0079944 0.0061311 0.0012096 -0.0011184 -0.004828 0.0020131 0.00291 -0.0014178 0.006904 0.0046731 0.0039046 -0.00080362 0.0083935 -0.0061339 -0.0047558 -0.00692 0.0065061 -0.0029352 0.0023309 -0.0095363 -0.00082983 -0.0091954 -5.9349e-05 -0.0087904 0.0013111 -0.0092199 -0.0020237 0.00030326 0.006109 -0.0042135 -0.0020674 -0.0036153 -0.0060653 0.0028389 -0.0072295 -0.0074168 -0.0095075 0.0074026 0.0063252 -0.009474 -0.0064632 -0.0014405 -0.0062426 0.0019703 0.0034014 -0.00088375 -0.0067523 -0.0044892 -0.0018776 0.0053785 -0.0082464 0.003534 -0.0066358 -0.0069879 -0.0006455 0.0032377 -0.0070455 0.0027461 0.00027465 -0.00053983 0.0020051 0.0038001 0.0063126 -0.0068523 0.0018293 0.0052397 -0.0042257 0.00033284 0.0065503 0.0079391 9.6113e-05 -0.006034 -0.0022991 -0.0062484 -0.0041781 0.0058332 0.009977 0.0046107 -0.0043064 0.0095586 8.8532e-05 0.0018321 0.0017968 0.0079434 -0.0084523 
be 0.00022664 -0.0030146 -0.0072771 -0.0022242 -0.00076988 -0.0027998 0.0071457 -0.0085609 0.0094189 0.0059895 0.0010892 0.0083465 0.0053792 -0.0070676 0.0052764 -0.00021951 -0.0082102 0.004813 -0.0046893 0.0012372 0.0018418 -0.0086227 0.0027676 -0.0069693 0.0036741 -0.008224 -0.00048922 0.007698 -0.00054807 0.0090885 0.0096705 -0.009857 -0.00084072 -0.0090797 -0.005513 0.0060584 -0.0091108 -0.0020192 -0.0032525 0.0098766 0.0088971 -0.0055178 -0.0093026 0.000529 0.00057399 0.001183 0.0025391 0.0024517 0.0015529 0.0058998 0.0081108 0.0038278 -0.0048503 -0.0017919 0.0058553 -0.0033279 -0.0013871 0.0025575 -0.0062383 0.009763 -0.0091671 0.00015383 0.0089776 0.00035736 0.0082917 -0.0060756 0.0076927 0.005119 -0.00055205 0.0053196 -0.0088707 -0.0088046 0.0054545 -0.0027592 -0.0094722 0.0072095 0.0079148 0.0057283 0.0038014 0.0064741 -0.0032421 0.0062185 0.0080437 -0.0039077 -0.0012415 0.0025862 -0.0058243 -0.0074573 0.009611 0.0081162 0.007348 -0.0017967 0.0043943 -0.004057 -0.0013071 -0.0027067 0.0073661 0.0075345 -0.0028944 -0.0012359 
working 0.0043083 0.0005388 -0.00012131 -0.0056061 0.0096777 -0.0016094 -0.0088832 -0.0019524 0.0093906 -0.0026556 0.0057093 -0.0080211 0.00089523 0.0032398 -0.0064263 0.0069783 -0.0096761 0.0062588 0.0087055 0.0065729 0.00065804 0.0092634 -0.0061226 -0.0083103 -0.0016441 -0.0069708 -0.0090086 0.0027606 -0.0032326 0.0062907 -9.2491e-05 0.0053282 -0.0061802 -0.0051998 -0.0081175 -0.0027042 0.0070912 -0.0041454 0.0067479 -0.0065648 -0.0099622 0.0066585 -0.00090925 0.0085179 0.0027963 0.0015684 -0.0016044 0.0097777 0.0065265 -0.0089592 0.0039323 -0.00095184 0.0042338 -0.00066192 -0.004323 -0.0089083 -0.0077814 -0.0058299 0.0025824 -0.004634 0.0090719 -0.0089354 0.0040902 -0.0027724 -0.00274 0.0086 0.0074146 -0.0015345 -0.004625 -0.0041458 -0.00061847 0.00032693 0.0048115 0.0060631 -0.0043183 -0.0051665 0.006548 0.0073695 0.0086951 0.003987 -0.0070614 -0.0049126 0.0060694 0.0067128 -0.0013443 -0.0083352 -0.0020712 -0.0091759 0.0015556 -0.0063323 0.0073091 0.0049184 0.0050845 0.00075477 0.0059689 0.0038475 0.0061642 0.0045541 0.0090618 0.0070993 
on -0.006176 0.0016058 0.0044659 0.0091045 -0.0082683 0.0059915 -0.0016326 -0.0064224 0.0080346 0.00504 -0.009795 -0.0044805 -0.0013161 -0.0059096 -0.007266 -0.0018189 0.0050286 -0.0071466 0.0040515 0.0092545 -0.0077089 -0.0092336 -0.0083962 0.0060469 0.007659 0.0017704 0.0004936 -0.0065256 -0.0001408 0.0029742 0.0081485 -0.0075493 0.0032159 0.0080894 -0.0014268 0.0070503 0.0051007 0.003465 0.0023569 0.00024516 0.0036978 -0.0021242 -0.0013695 0.0097923 -0.007426 -0.0023514 -0.0011822 -0.0039796 0.0066529 -0.0059706 0.00039812 0.007636 0.0026017 -0.0039773 -0.0081565 -0.0022642 0.0012195 0.00027043 0.0098829 0.0047726 0.0084799 0.00099389 -0.0093244 0.009774 -0.007927 0.0088738 -0.0033501 -0.0032734 -0.0059524 -0.0034473 -0.0067417 -0.0089178 -0.0095161 -0.0086777 -0.0044582 0.0096117 0.0029035 0.0067899 0.0041959 0.0030914 0.0020189 -0.0050765 0.0078423 -0.00083592 -0.0028043 0.008795 -0.0038849 0.0070099 0.0091384 0.0082936 -0.0078144 0.0066471 -0.0088204 -0.0086737 0.0098185 0.0021207 -0.0028309 0.0015488 0.0052628 0.0029324 
a -0.0079881 0.0055799 -0.0067864 0.0095599 -0.0051108 -0.0020704 -0.0058149 0.0075134 0.0063955 0.0088257 0.0046718 0.0036034 0.0065625 -0.0039662 0.0020286 -0.0035979 0.0093568 0.0034437 -0.0033417 0.0082061 0.00042155 0.0014948 0.0082935 -0.0017167 0.0076017 -0.0013175 -0.0029671 -0.0039282 -0.0053634 0.00029065 0.0096961 0.0018151 0.0064752 0.00080156 -0.0014458 -0.0029895 0.0029663 0.0059335 -0.00054319 -0.0044324 0.002936 0.0075705 0.0063681 0.0093299 0.0049493 0.0035156 -0.0063249 0.0027229 -0.0026016 0.009326 -0.0068918 -0.0054018 -0.0011243 0.0095908 -0.0013679 -0.0017493 0.0082644 0.0065071 -0.0036359 -0.0059185 0.00094058 0.0059024 0.0086154 -0.0002503 0.008453 0.0041007 -0.0057565 -0.0019636 0.0016344 0.0052282 0.0018861 0.0055499 -0.0066985 -0.0056875 0.0093434 0.00040283 -0.0014438 0.0055754 0.0097854 0.0041765 -0.0037167 0.0089332 -0.0015969 0.0018737 0.0075327 -0.009892 0.0027594 -0.0047497 -0.0055024 -0.0030138 -0.003002 -0.0060256 -0.0044536 0.0088302 -0.006526 0.0061091 -0.007791 -0.0038558 -0.0044697 0.0038574 
foldable 0.0019237 -0.0051815 -0.0034774 0.0057341 -0.0059011 0.0084153 0.0033375 0.0016687 0.0093185 0.0053219 0.0096162 0.0014085 0.0046109 -0.0099047 -0.0088419 0.00807 0.0020876 0.00060308 0.0061967 0.0031094 -0.0095089 0.0082773 -0.0017796 -0.0031334 -0.00072259 -0.0045996 -0.008908 -0.0060195 0.00769 0.008933 -0.007051 -0.0031543 0.00068171 -0.0055861 -0.0047681 -0.0045883 0.0043727 -0.00068169 0.004547 -0.0068197 0.0087132 -0.0081069 0.0041536 -0.0077176 0.0056784 -0.0069587 0.0079834 0.0078621 0.0034651 -0.0014483 -0.0088569 0.0028101 -0.0040037 -0.0070902 -0.0048335 0.0011278 -0.0099623 -0.0053526 0.0077213 0.0030569 -0.0056935 -0.0048124 0.0054775 -0.0045786 -0.0053282 0.0045724 -0.0093537 0.00097114 -0.0022934 0.0012084 -0.0086826 0.0013982 -0.0086308 0.0084324 0.00060752 -0.0065916 0.0075649 0.0050178 -0.0072237 -0.0074633 -0.0021197 0.0022584 0.0077219 -0.002881 0.0035568 0.0046774 0.0048717 0.0029748 -0.0037912 -0.0055312 0.0069042 -0.0070943 0.0034723 -0.0030685 -0.009855 -0.0014885 0.0036032 0.0071127 0.0016217 0.0068916 
iPhone -0.0033144 -0.0043692 -0.0017956 -0.0048781 0.0062878 -0.0035293 -0.005363 0.0093785 -0.0040479 0.005236 -0.0049936 -0.0043538 0.0060462 -0.004546 -0.002495 0.0098007 0.0037108 0.0022899 -0.0081761 -0.0039989 0.0057767 0.0091443 0.0078485 0.0086355 -0.00026056 -0.0031376 -0.0088473 -0.0084464 0.004558 0.0090023 0.0048922 -0.0054382 0.0077856 -0.0010595 -0.0044735 0.0051886 0.0099417 -0.0098289 -0.0037858 0.00066527 -0.009956 0.0060989 0.0039459 0.0016027 0.0016044 -0.0065091 -0.0035173 -0.0035909 -0.0073991 0.0045495 -0.0070653 0.0072338 -0.0034056 -0.0057719 -0.0033749 0.0046174 -0.0074224 0.0048622 0.0013454 0.0029271 -0.0010814 0.0045834 -0.00022447 -0.0048966 -0.0081985 -0.0049727 -0.0096781 0.0032088 -0.0003785 0.00016549 -0.009055 -0.0046149 0.000619 0.0087251 0.0032871 0.002303 -0.0073631 0.00026588 0.0051523 -0.00036501 0.0034244 -0.00072782 -0.0012481 -0.00049029 -0.0065632 0.0052691 0.005917 -0.0090302 0.006811 -0.0090544 0.00019221 -0.0025935 -0.0023892 -0.0074547 0.0053004 -0.003842 -0.0044656 -0.0030311 -0.0077627 0.0099493 
NASA -0.00894 0.0035596 -0.0063321 -0.0044234 0.0019935 0.0088055 -0.00022067 -0.0059209 0.0076408 0.0041974 -0.0096259 0.0031365 0.0068054 -0.001812 -0.00011747 -0.007198 -0.0024656 -0.00012368 0.0064024 0.002454 0.0094307 -0.0057502 -0.0048841 -0.0013053 -0.0028249 -0.0096492 -0.0044536 -0.0059394 0.0014778 -0.0049169 0.0011658 0.0096552 0.0087162 0.0011711 -1.0321e-05 0.0099934 0.0076392 0.00245 0.0011588 -0.0014747 0.005981 -0.0075197 -0.0065367 -0.00026977 0.0064246 -0.0078083 -0.0028353 -0.0062955 0.0026352 -0.008617 0.0089488 -0.0026579 -0.0020718 0.00036047 -0.0078105 -0.0042027 -0.0070147 0.0019578 -0.0068142 -0.0094356 0.0082303 -0.00042799 0.007488 0.0064513 -0.0042657 0.0019537 0.0011448 0.0044987 0.0082284 -0.0023291 -0.0095246 0.0046435 0.0039629 -0.008601 -0.0036081 0.0028468 0.001676 -0.0070878 0.0032985 0.0051121 0.00065305 0.0024445 -0.0091589 0.0041456 0.005103 -0.008129 0.0038025 0.0065976 0.0056264 -0.0053205 -0.0041511 -0.0039019 0.0081558 -0.0017958 0.0031432 -0.0091613 0.0051259 -0.0033123 0.0011221 0.0017476 
2027. 0.0023405 0.0048451 -0.0029046 -0.0038514 0.0057012 -0.0040671 -0.0017832 -0.0029114 0.0024579 0.0052974 -0.0095374 0.0025415 0.0093246 -0.0096197 -0.002631 0.00079522 -0.0074175 0.0056723 -0.0055644 0.0012397 -0.0011659 8.0982e-05 -0.0019994 0.0096613 -0.0094737 -0.006542 -0.0051322 0.0037499 -0.0045946 0.0053356 0.0063122 -0.0028702 -0.0041164 -0.00072456 0.0066436 -0.0051443 -0.0048706 -0.0080702 0.007708 0.0098197 -0.0049081 -0.0028371 -0.0075639 -0.0074498 -0.0058837 0.009096 -0.0090246 -0.0084882 -0.0080484 0.0058823 -0.00636 -0.0012912 -0.0096567 -0.0071438 0.0067395 0.0029696 -0.0020357 -0.00074473 -0.0092426 0.0047618 0.0027654 -0.0014392 0.0017216 0.0013791 -0.0084733 -0.0035552 0.0049556 0.0027081 -0.0097528 -0.0089 0.00053255 -0.0018574 0.003854 0.0083575 -0.00077036 -0.0011973 -0.0066835 0.0048406 0.0064209 0.0065323 0.0073288 0.0020904 -0.0035266 -0.00281 0.0071241 0.00012281 -0.0084474 -0.0072043 -0.0047548 -0.0018494 0.0081636 -0.0020288 0.0064764 0.0019676 -0.0026119 -0.0078716 0.0025813 -0.0095029 0.0031177 -0.003833 
The 0.0036219 -0.0073477 0.00031279 -0.0063033 0.0089716 -0.00037841 -0.00047622 -0.0080974 0.009232 0.0046646 -0.0018704 -0.0055299 0.003847 0.0072441 -0.0029626 -0.0036338 -0.0076152 -0.003595 -0.0029179 0.0049835 -0.00086807 0.0051791 -0.0063193 0.00070498 -0.0051108 -0.00097607 0.0026713 0.0002589 -0.0040725 0.0087881 -0.00377 0.0035385 0.0022045 -0.0021005 -0.0040295 0.0047593 -0.0021442 0.00064911 -0.007655 -0.003507 0.008528 0.0093092 -0.0023948 0.0040407 -0.0092233 0.0049071 -0.0065874 -0.0067283 0.0053844 -0.0087977 -0.0058401 0.0017865 -0.003153 0.0076093 0.0044686 0.0055732 0.0014673 0.0067363 0.0016835 -0.003646 -0.0022171 -0.0097822 0.0019795 -0.0095158 0.0010517 -0.0047745 -0.006406 -0.003174 -0.0040495 -0.0029063 -0.0085005 -0.0084035 -0.0027196 -0.00036559 -0.0093096 -0.00038893 0.0072238 0.0043142 0.0017504 -0.0013877 -0.0009943 -0.0017044 0.0074025 -0.0018658 0.0083542 0.0067714 -0.004431 -0.0066017 0.0028095 0.00081812 0.0064677 0.0076066 0.0025455 -0.0020819 0.0015994 -0.00027771 -0.00016406 0.0067025 0.0061417 -0.0049773 
Nvidia 0.0090641 -0.0092765 -0.0034795 -0.0041459 0.0029017 -0.0054579 -0.0018481 0.00071386 0.0025276 -0.0068621 0.0042898 -0.00068681 -0.0087983 0.007654 0.0014338 -0.0073701 -0.002903 -0.0016671 -0.0050582 0.0054312 -0.0091131 0.0090272 0.0018271 0.0055837 0.0011316 0.00069479 -0.0086879 0.00034236 -0.007652 -0.0082757 0.0098794 0.0037855 0.0017518 0.0030728 -0.00083556 -0.0069242 -0.0072082 0.0044808 0.005679 0.0079045 -0.0099511 0.0055444 0.0087964 -0.0053075 0.00040649 0.0054209 -0.0054454 0.0030397 -0.0013175 -0.001943 0.0019218 -0.0045863 0.0089592 0.0091159 -0.0024357 -0.0018673 -0.0070585 -0.0044468 0.00011098 -0.0095086 0.0087683 -0.0019012 -0.0045371 -0.0070221 0.0063428 0.0014596 -0.0067768 0.0079547 0.0038532 0.0044732 0.0025025 -0.0095614 -0.003577 -0.0086025 -0.0091045 0.0097764 -0.0012652 -0.0068308 0.0016087 -0.0047039 -0.0060867 0.0034542 -0.0085632 -0.007705 0.0082171 -0.0011239 -0.0060935 -0.0088931 -0.0079309 0.0082202 -0.0069175 0.0098933 -0.0098676 0.0043338 0.0046341 0.0084612 0.0049002 0.0093953 -0.0045833 -0.0071971 
Blackwell 0.0084184 0.0054795 0.0026369 0.002135 -0.0076929 -0.0086568 0.0011527 -0.0052461 0.0073863 0.0033987 -0.009716 -0.0092993 -0.0050801 0.0021214 0.0069809 0.007567 -0.0099634 0.0071256 0.0087365 -0.0043268 0.0063977 -0.0023022 -0.0012042 -0.0086067 0.006869 -0.00098355 -0.0093517 -0.0053726 0.0031372 0.0073023 -0.0057992 0.0066155 -0.00572 -0.005875 0.0014187 -0.0072515 -0.0098621 0.0012947 -0.00017573 -0.0030156 0.0082622 0.0071674 0.0081826 0.0097251 0.00011011 0.0068612 -0.0048825 -0.0086367 -0.0011488 0.0087084 -0.0027904 0.0068642 -0.0065503 0.0046955 -0.0075471 -0.0063418 0.0049426 0.0036869 -0.0034883 -0.0036333 0.0079789 -0.0019955 0.0042435 0.0030397 -0.00057323 -0.0048419 0.005537 -0.0076971 0.0020833 -0.0012622 0.0076714 -0.0018877 -0.0026805 -0.008257 -0.0026244 -0.0038527 0.00054212 -0.00093689 0.0022764 0.0074354 -0.00064618 0.0099024 -0.0061993 0.0088967 -0.007063 -0.0049503 -0.0085117 0.0060213 0.0021794 0.0010546 -0.00041545 0.0055316 0.0049259 0.0050958 -0.0035664 -0.00050791 -0.0070934 -0.0079451 -0.002982 0.00058036 
chips -0.007331 0.0041116 0.00096708 0.0027422 -0.003483 -0.0060726 0.002243 0.0066683 -0.0014658 0.0017796 -0.0037603 0.0014792 -0.0079087 0.0047126 -0.0072931 0.005195 -0.0041925 0.0079127 -0.0077877 -0.0057247 -0.0027617 -0.0013309 0.0077152 0.0010418 -0.0065406 0.0082326 -0.0072993 -0.0085761 -0.0038264 -0.0096091 0.0029308 -0.0075654 0.0052923 -0.0022588 -0.0052732 -0.0073046 0.007292 -0.0020806 -0.0040425 0.004081 0.0072465 0.0067603 -0.0015005 -0.0042247 0.0032772 -0.0053161 0.0082605 0.00029991 0.0065118 0.0024372 -0.0058437 0.0028137 0.0018151 -0.0038805 -0.0051622 0.0076781 0.0076692 -0.0079976 0.0051533 -0.0045547 0.0045932 -0.0087842 -0.0051701 0.0030073 -0.0053998 0.0087939 -0.0043382 0.0073825 -0.001146 -0.0030302 -0.00082601 -0.0092672 -0.0055941 0.0024059 0.0091156 -0.0027954 0.0080828 0.0041118 0.0030585 0.0088931 -0.0016246 -0.0047536 -0.0054529 -0.007499 0.0067168 -0.0098624 0.0003471 -0.0096635 -0.0040061 -0.00068833 -0.00066443 0.0019673 -0.0025926 -0.0048979 0.0013058 -0.0018583 -0.0070463 0.0048561 -0.0092914 0.0084803 
are 0.0053226 -0.0095155 0.0041066 0.0016569 0.0038418 -0.0091706 -0.0042849 0.0021369 0.0091337 0.0039969 0.0066506 0.00753 0.0030777 0.0044038 0.0029179 0.0046591 0.0026826 -0.0077993 0.0079676 0.0068561 0.0077771 0.0020777 0.0091377 0.0045422 -0.0095034 0.0026508 -0.0057459 0.0065415 0.0041672 0.0086342 -0.00049155 -0.0097645 0.0037288 0.00139 -0.0032835 -0.0058924 -0.0086619 0.0019832 0.00014068 -0.00019898 0.0083441 0.006722 -0.0089417 -0.0042052 -0.004123 -0.003232 -0.001153 -0.0013187 0.007303 0.0038534 -0.0028146 0.00076375 -0.0023009 0.0023111 -0.0062214 -0.009976 -0.007103 -0.0011723 -0.0043565 0.0096477 0.001256 0.0052477 -0.0015222 0.0055461 0.0074327 0.0058765 -0.0034549 -0.0073215 -0.0057989 -0.0070187 -0.0083123 0.0017975 0.0031923 -0.0091672 0.00077381 0.0058114 0.0068754 0.0036033 -0.0092783 0.0046826 0.00012987 -0.005666 0.0070788 -0.00084453 -0.0068497 0.0088654 0.006265 0.0038265 0.0094091 0.0071709 0.0060249 0.0023083 0.0016179 -0.0010926 -0.0069499 0.0009392 -0.0039315 0.0062862 -0.0093418 0.0031501 
sold 0.001445 0.0058146 -0.0051597 -0.003416 -0.00048674 -0.0073851 0.0016717 -0.0079505 0.0090912 0.0010293 -0.0064192 0.0029786 -0.0036483 -0.00013504 0.0053639 -0.0045443 -0.0095161 -0.0056305 -0.0019402 -0.0051403 -0.0039985 0.0089067 -0.0041977 0.0025307 0.0025192 0.0045305 -0.008525 0.0091354 0.0001403 -0.0055626 -0.005136 -0.0069867 -0.0042804 0.0072099 0.0028097 0.00096367 -0.004359 -0.0012061 -0.0048586 -0.0048611 -0.0099449 0.0049865 -0.0063517 0.0077781 -0.0007895 -0.002654 -0.0073682 0.0096704 0.0047634 -0.0084351 -0.0090825 0.0035943 0.0013253 0.004006 -0.0014889 -0.0083465 -0.0066945 0.0062467 -0.0011255 -0.0019477 -0.0013855 -0.0083862 -0.0088534 -0.0091484 0.00088517 0.0078899 -0.003872 -0.0073016 0.0080917 0.0087833 -0.005934 0.0054949 -0.0077723 -0.0059337 -0.0014954 -0.0027526 0.0048252 0.0060652 -0.0019378 -0.0090481 0.0044009 0.0076374 0.0041173 0.0050864 0.002996 -0.0075168 0.0018946 -0.0087514 -0.0026739 0.0054982 0.0059666 0.0023809 0.0026531 -0.0038749 0.0039642 0.00077046 -0.0057342 0.0018156 -0.0014074 -0.0043472 
out 0.0057186 0.0074151 -0.0082788 0.0086499 0.0025942 -0.0059838 0.0025477 -0.0046555 0.0070572 0.0025726 -0.0096756 -0.0017105 0.0030347 0.0061408 -0.0058957 0.00226 0.002541 -0.0057386 -0.0089212 0.0088821 0.0034511 0.0011612 0.0023921 0.0040666 -0.0035262 0.0076424 0.0057283 -0.0047939 0.0047781 -0.00053732 0.0072256 0.0036971 -0.00018624 0.0071436 0.0028457 -0.0044045 -0.0073446 0.00020949 -0.0014452 -0.0046462 -0.0094549 0.0018125 0.0029579 -0.00031021 -0.0061229 0.0014664 -0.006735 0.0090343 -0.0050469 0.0060478 0.0056163 -0.0035239 0.0088772 0.009033 -0.0072391 -0.0083804 -0.0031932 0.0053971 -0.00017476 0.0021621 0.0077265 -0.0034922 0.0010249 -0.00032894 0.0031046 0.0083007 0.0099809 9.0079e-05 -0.0038995 -0.00016901 0.0048811 -0.0083722 -0.0092637 -0.0080451 -0.0017053 0.0094147 -0.00064152 0.0051958 0.0013134 0.0096085 -0.0019785 -0.0026084 -0.0032233 -0.0062368 0.00080596 -0.0018215 -0.00082589 0.0055273 -0.0012998 0.007437 0.0032813 -0.0050261 0.0017957 -0.0080176 0.0097386 0.0081802 0.00077303 0.0073077 -0.0071059 -0.00059754 
high-resolution 0.0029423 0.003392 0.004958 0.0092896 0.0073041 -0.0079413 0.0062958 -0.0038359 -0.0054758 -0.0017761 0.0021548 0.00043999 -0.0051472 -0.00085806 0.0080713 0.0095195 -0.00096477 -0.0099667 0.0099972 0.007299 -0.0042669 -0.0027308 -0.0026571 -0.0076043 -0.0037011 0.0029709 -0.0094847 -0.00088594 -0.0030743 -0.0046214 -0.00046337 0.0078649 -0.0053273 -0.0037233 0.0028153 -0.0093725 -0.00052739 0.0039823 0.0042698 -0.0017523 -0.00059593 -0.0036876 0.0046202 -0.001034 -0.0074785 0.00020254 0.0057457 0.0091003 0.0009573 -0.00099331 -0.0051728 0.0070092 -0.0068059 -0.00061239 0.0029884 -0.0075074 -0.0027191 0.0047332 -0.00046528 0.0061185 0.0064164 0.0039412 0.0079603 0.0046776 -0.0023399 0.0010793 0.0064231 -0.0079623 0.0076299 0.0028681 -0.0021649 0.0033727 0.0050185 -0.0036812 -0.0010624 -0.004429 0.002792 0.0033574 -0.00024752 -0.0089017 0.0093877 0.0084349 -0.0073671 0.0079336 0.006343 0.00010245 0.0091404 0.0079642 -0.0032905 0.00048333 -0.0095376 0.005973 0.0084373 0.0082344 0.0052344 0.0041958 0.0034118 -0.00090542 -0.0017239 0.00077916 
